FANN_FLO_2.1
num_layers=3
learning_rate=0.700000
connection_rate=1.000000
network_type=0
learning_momentum=0.000000
training_algorithm=2
train_error_function=1
train_stop_function=0
cascade_output_change_fraction=0.010000
quickprop_decay=-0.000100
quickprop_mu=1.750000
rprop_increase_factor=1.200000
rprop_decrease_factor=0.500000
rprop_delta_min=0.000000
rprop_delta_max=50.000000
rprop_delta_zero=0.100000
cascade_output_stagnation_epochs=12
cascade_candidate_change_fraction=0.010000
cascade_candidate_stagnation_epochs=12
cascade_max_out_epochs=150
cascade_max_cand_epochs=150
cascade_num_candidate_groups=2
bit_fail_limit=3.49999994039535520000e-001
cascade_candidate_limit=1.00000000000000000000e+003
cascade_weight_multiplier=4.00000005960464480000e-001
cascade_activation_functions_count=10
cascade_activation_functions=3 5 7 8 10 11 14 15 16 17 
cascade_activation_steepnesses_count=4
cascade_activation_steepnesses=2.50000000000000000000e-001 5.00000000000000000000e-001 7.50000000000000000000e-001 1.00000000000000000000e+000 
layer_sizes=27 16 4 
scale_included=0
neurons (num_inputs, activation_function, activation_steepness)=(0, 0, 0.00000000000000000000e+000) (0, 0, 0.00000000000000000000e+000) (0, 0, 0.00000000000000000000e+000) (0, 0, 0.00000000000000000000e+000) (0, 0, 0.00000000000000000000e+000) (0, 0, 0.00000000000000000000e+000) (0, 0, 0.00000000000000000000e+000) (0, 0, 0.00000000000000000000e+000) (0, 0, 0.00000000000000000000e+000) (0, 0, 0.00000000000000000000e+000) (0, 0, 0.00000000000000000000e+000) (0, 0, 0.00000000000000000000e+000) (0, 0, 0.00000000000000000000e+000) (0, 0, 0.00000000000000000000e+000) (0, 0, 0.00000000000000000000e+000) (0, 0, 0.00000000000000000000e+000) (0, 0, 0.00000000000000000000e+000) (0, 0, 0.00000000000000000000e+000) (0, 0, 0.00000000000000000000e+000) (0, 0, 0.00000000000000000000e+000) (0, 0, 0.00000000000000000000e+000) (0, 0, 0.00000000000000000000e+000) (0, 0, 0.00000000000000000000e+000) (0, 0, 0.00000000000000000000e+000) (0, 0, 0.00000000000000000000e+000) (0, 0, 0.00000000000000000000e+000) (0, 0, 0.00000000000000000000e+000) (27, 4, 5.00000000000000000000e-001) (27, 4, 5.00000000000000000000e-001) (27, 4, 5.00000000000000000000e-001) (27, 4, 5.00000000000000000000e-001) (27, 4, 5.00000000000000000000e-001) (27, 4, 5.00000000000000000000e-001) (27, 4, 5.00000000000000000000e-001) (27, 4, 5.00000000000000000000e-001) (27, 4, 5.00000000000000000000e-001) (27, 4, 5.00000000000000000000e-001) (27, 4, 5.00000000000000000000e-001) (27, 4, 5.00000000000000000000e-001) (27, 4, 5.00000000000000000000e-001) (27, 4, 5.00000000000000000000e-001) (27, 4, 5.00000000000000000000e-001) (0, 0, 0.00000000000000000000e+000) (16, 4, 5.00000000000000000000e-001) (16, 4, 5.00000000000000000000e-001) (16, 4, 5.00000000000000000000e-001) (0, 0, 0.00000000000000000000e+000) 
connections (connected_to_neuron, weight)=(0, -4.47631850838661190000e-002) (1, -4.15588393807411190000e-002) (2, -3.18298339843750000000e-002) (3, 7.69653320312500000000e-002) (4, 4.86511252820491790000e-002) (5, 3.32641601562500000000e-003) (6, -6.17614760994911190000e-002) (7, 1.23718259856104850000e-002) (8, 2.62817386537790300000e-002) (9, -4.32067885994911190000e-002) (10, -9.49035659432411190000e-002) (11, -2.89428718388080600000e-002) (12, -5.05737327039241790000e-002) (13, 5.88684082031250000000e-002) (14, -2.31140144169330600000e-002) (15, 4.38903830945491790000e-002) (16, -4.94384788908064370000e-004) (17, -9.66857895255088810000e-002) (18, 5.83557151257991790000e-002) (19, -4.14489768445491790000e-002) (20, -3.22143547236919400000e-002) (21, 9.33349654078483580000e-002) (22, -9.12414565682411190000e-002) (23, 3.07128913700580600000e-002) (24, 2.68554687500000000000e-002) (25, 5.23193366825580600000e-002) (26, -6.54235854744911190000e-002) (0, -8.90136733651161190000e-002) (1, -8.51318389177322390000e-002) (2, -4.04052762314677240000e-003) (3, 9.82055664062500000000e-002) (4, -1.62902828305959700000e-002) (5, -3.59802246093750000000e-002) (6, -2.81005855649709700000e-002) (7, 2.39868164062500000000e-002) (8, -2.59399414062500000000e-002) (9, -9.56237837672233580000e-002) (10, -2.67272945493459700000e-002) (11, 8.26477035880088810000e-002) (12, 1.95251461118459700000e-002) (13, 7.43347182869911190000e-002) (14, 3.22326682507991790000e-002) (15, -6.43981918692588810000e-002) (16, -3.78601066768169400000e-002) (17, -3.10119632631540300000e-002) (18, 9.99084487557411190000e-002) (19, -7.97790512442588810000e-002) (20, -8.23730453848838810000e-002) (21, -4.23400886356830600000e-002) (22, 1.88476573675870900000e-002) (23, -4.26269546151161190000e-002) (24, 7.78015181422233580000e-002) (25, -9.82421860098838810000e-002) (26, -5.63964853063225750000e-003) (0, -3.75305190682411190000e-002) (1, 2.34375009313225750000e-003) (2, -9.56604033708572390000e-002) (3, 7.09045454859733580000e-002) (4, 4.13208007812500000000e-002) (5, -4.36401367187500000000e-002) (6, -7.74780288338661190000e-002) (7, 1.97937022894620900000e-002) (8, 5.19531257450580600000e-002) (9, -5.01464866101741790000e-002) (10, 7.40539580583572390000e-002) (11, -5.55053725838661190000e-002) (12, 1.37207033112645150000e-002) (13, 3.54064963757991790000e-002) (14, -3.07067874819040300000e-002) (15, 9.78393573313951490000e-003) (16, -5.50598166882991790000e-002) (17, -7.97180160880088810000e-002) (18, 9.97680649161338810000e-002) (19, 9.09423863049596550000e-004) (20, 1.02478032931685450000e-002) (21, 4.93225120007991790000e-002) (22, 1.46972658112645150000e-002) (23, -8.08532759547233580000e-002) (24, -4.09545898437500000000e-002) (25, 1.46728521212935450000e-002) (26, -8.33923369646072390000e-002) (0, -8.00964385271072390000e-002) (1, -6.38671889901161190000e-002) (2, 4.88281250000000000000e-002) (3, 7.34863290563225750000e-003) (4, -3.29589849570766090000e-004) (5, 4.59045432507991790000e-002) (6, 5.70495612919330600000e-002) (7, 1.57775878906250000000e-002) (8, -6.19812011718750000000e-002) (9, -4.86877448856830600000e-002) (10, -5.44799827039241790000e-002) (11, 3.82812507450580600000e-002) (12, -9.90539565682411190000e-002) (13, 8.88061523437500000000e-002) (14, -9.85595732927322390000e-002) (15, -7.65197798609733580000e-002) (16, 1.18225095793604850000e-002) (17, -1.94091796875000000000e-002) (18, -1.86340343207120900000e-002) (19, -6.76818862557411190000e-002) (20, 9.61120650172233580000e-002) (21, 2.53601074218750000000e-002) (22, 6.39160200953483580000e-002) (23, -9.52087417244911190000e-002) (24, -9.37805175781250000000e-002) (25, 4.88098151981830600000e-002) (26, -7.67211914062500000000e-002) (0, 6.45324736833572390000e-002) (1, 3.26416008174419400000e-002) (2, -4.83398465439677240000e-003) (3, 7.96020552515983580000e-002) (4, 9.26025435328483580000e-002) (5, 7.70874042063951490000e-003) (6, 4.09790053963661190000e-002) (7, -1.73767097294330600000e-002) (8, 1.60522467922419310000e-003) (9, 8.14209040254354480000e-003) (10, -8.75610336661338810000e-002) (11, -1.52648929506540300000e-002) (12, 4.14916984736919400000e-002) (13, 6.26953169703483580000e-002) (14, 8.74450728297233580000e-002) (15, 5.97534179687500000000e-002) (16, -3.17504890263080600000e-002) (17, -2.88818366825580600000e-002) (18, 6.37023970484733580000e-002) (19, -7.63305649161338810000e-002) (20, -9.33288559317588810000e-002) (21, 4.07287590205669400000e-002) (22, -2.59399414062500000000e-002) (23, -8.64501968026161190000e-002) (24, -6.13769553601741790000e-002) (25, 4.67590354382991790000e-002) (26, -6.95861801505088810000e-002) (0, 8.09387192130088810000e-002) (1, 4.78454604744911190000e-002) (2, -7.71728530526161190000e-002) (3, -2.26867683231830600000e-002) (4, 5.59326186776161190000e-002) (5, -4.72778342664241790000e-002) (6, -1.22802732512354850000e-002) (7, 3.66333015263080600000e-002) (8, -6.17553703486919400000e-002) (9, 5.81542961299419400000e-002) (10, 1.47338872775435450000e-002) (11, -7.55004882812500000000e-002) (12, -2.85827647894620900000e-002) (13, 5.78063987195491790000e-002) (14, -5.00976555049419400000e-002) (15, 2.16918941587209700000e-002) (16, 5.65368644893169400000e-002) (17, 1.80603023618459700000e-002) (18, -1.47888185456395150000e-002) (19, 7.88818374276161190000e-002) (20, 6.16271980106830600000e-002) (21, 7.47802779078483580000e-002) (22, -6.76269549876451490000e-003) (23, -6.21826164424419400000e-002) (24, -1.69982910156250000000e-002) (25, -2.57324222475290300000e-002) (26, 2.93029788881540300000e-002) (0, 4.98352050781250000000e-002) (1, -8.51745605468750000000e-002) (2, -1.03881834074854850000e-002) (3, -9.25292968750000000000e-002) (4, -2.71728523075580600000e-002) (5, 8.31176787614822390000e-002) (6, 4.36279289424419400000e-002) (7, -4.33593764901161190000e-002) (8, -7.19787627458572390000e-002) (9, -9.95361357927322390000e-002) (10, -3.02551276981830600000e-002) (11, -3.70666496455669400000e-002) (12, -2.23999028094112870000e-003) (13, 9.76867675781250000000e-002) (14, -5.79833984375000000000e-002) (15, 4.69970703125000000000e-003) (16, 4.55261245369911190000e-002) (17, 8.86962935328483580000e-002) (18, 5.49926748499274250000e-003) (19, -1.36779788881540300000e-002) (20, -6.04736320674419400000e-002) (21, 2.48474124819040300000e-002) (22, -6.17065429687500000000e-002) (23, -2.28942874819040300000e-002) (24, -3.89953628182411190000e-002) (25, 9.49218794703483580000e-002) (26, -2.35229488462209700000e-002) (0, -3.85009758174419400000e-002) (1, -2.14111339300870900000e-002) (2, -7.28698745369911190000e-002) (3, 3.31603996455669400000e-002) (4, -9.31030288338661190000e-002) (5, 6.98852539062500000000e-002) (6, 4.92980964481830600000e-002) (7, -5.70434592664241790000e-002) (8, -4.47387695312500000000e-002) (9, -2.83874515444040300000e-002) (10, 6.34704604744911190000e-002) (11, -3.69140617549419400000e-002) (12, 4.48120124638080600000e-002) (13, 3.94775383174419400000e-002) (14, 9.12902876734733580000e-002) (15, 6.23291023075580600000e-002) (16, -3.18969748914241790000e-002) (17, 9.90966781973838810000e-002) (18, -5.37475608289241790000e-002) (19, 2.92114261537790300000e-002) (20, -2.74230968207120900000e-002) (21, 6.91467300057411190000e-002) (22, -1.07971196994185450000e-002) (23, -6.95190429687500000000e-002) (24, -8.99597182869911190000e-002) (25, -6.19384758174419400000e-002) (26, -7.66845718026161190000e-002) (0, -4.87243644893169400000e-002) (1, 4.11621108651161190000e-002) (2, -2.45178230106830600000e-002) (3, 8.46984907984733580000e-002) (4, -5.18066398799419400000e-002) (5, -9.86572280526161190000e-002) (6, -4.03015129268169400000e-002) (7, 8.50219726562500000000e-002) (8, -5.35278320312500000000e-002) (9, -6.58935531973838810000e-002) (10, -9.75769087672233580000e-002) (11, -3.76708991825580600000e-002) (12, -8.74206572771072390000e-002) (13, 9.83703657984733580000e-002) (14, 5.20019531250000000000e-002) (15, 9.62707549333572390000e-002) (16, 3.34167480468750000000e-002) (17, -4.42382805049419400000e-002) (18, 5.64453117549419400000e-002) (19, 4.40917983651161190000e-002) (20, 3.34594734013080600000e-002) (21, 4.42932136356830600000e-002) (22, 6.74560591578483580000e-002) (23, -4.64782714843750000000e-002) (24, -3.90075705945491790000e-002) (25, 4.45800796151161190000e-002) (26, 6.67053237557411190000e-002) (0, -9.10827666521072390000e-002) (1, -2.52197273075580600000e-002) (2, -5.50781264901161190000e-002) (3, -4.32128924876451490000e-003) (4, 6.68273940682411190000e-002) (5, -3.76831069588661190000e-002) (6, -8.85864272713661190000e-002) (7, -2.98034679144620900000e-002) (8, -6.27502426505088810000e-002) (9, -7.89672881364822390000e-002) (10, 6.94580078125000000000e-002) (11, -3.89282219111919400000e-002) (12, 6.68823271989822390000e-002) (13, -6.64001479744911190000e-002) (14, -9.72229018807411190000e-002) (15, 2.19055172055959700000e-002) (16, 8.05358886718750000000e-002) (17, 6.86340332031250000000e-002) (18, 7.63061568140983580000e-002) (19, 4.54895012080669400000e-002) (20, -6.29699751734733580000e-002) (21, 3.80676276981830600000e-002) (22, -1.08642578125000000000e-002) (23, -7.00439438223838810000e-002) (24, -4.42199707031250000000e-002) (25, -5.76477050781250000000e-002) (26, 6.38183578848838810000e-002) (0, -6.41113296151161190000e-002) (1, 7.03247115015983580000e-002) (2, -6.51306137442588810000e-002) (3, 7.81860351562500000000e-002) (4, -8.42102095484733580000e-002) (5, 6.50756880640983580000e-002) (6, -6.32995590567588810000e-002) (7, -5.39001487195491790000e-002) (8, -3.02124023437500000000e-003) (9, 5.15258796513080600000e-002) (10, 3.30017097294330600000e-002) (11, 5.31433112919330600000e-002) (12, -6.83593738358467820000e-004) (13, -5.98754882812500000000e-002) (14, 8.23486372828483580000e-002) (15, -4.62158210575580600000e-002) (16, -3.11096198856830600000e-002) (17, -3.58459465205669400000e-002) (18, -2.98339854925870900000e-002) (19, -6.39953613281250000000e-002) (20, -9.09545943140983580000e-002) (21, 1.17736821994185450000e-002) (22, 3.75488288700580600000e-002) (23, 5.98205588757991790000e-002) (24, 8.98254439234733580000e-002) (25, 2.25219726562500000000e-002) (26, -8.32641646265983580000e-002) (0, -2.41516120731830600000e-002) (1, 1.72790531069040300000e-002) (2, 4.54101571813225750000e-003) (3, -9.55078154802322390000e-002) (4, -6.97631835937500000000e-002) (5, 4.37072776257991790000e-002) (6, -7.12524428963661190000e-002) (7, -9.53918471932411190000e-002) (8, 6.21215812861919400000e-002) (9, -9.97680649161338810000e-002) (10, 5.61706535518169400000e-002) (11, 7.07702636718750000000e-002) (12, -5.49316428077872840000e-005) (13, -6.71508833765983580000e-002) (14, -4.51904311776161190000e-002) (15, -1.88537593930959700000e-002) (16, 6.28845244646072390000e-002) (17, -7.67700225114822390000e-002) (18, -3.78723144531250000000e-002) (19, 7.57507309317588810000e-002) (20, 7.35046416521072390000e-002) (21, 7.55981430411338810000e-002) (22, -5.04455566406250000000e-002) (23, -1.19323730468750000000e-002) (24, 8.81286635994911190000e-002) (25, 5.08117675781250000000e-002) (26, -5.48461936414241790000e-002) (0, -9.80224609375000000000e-002) (1, 5.09094260632991790000e-002) (2, 2.90039069950580600000e-002) (3, 7.07580596208572390000e-002) (4, -3.46313491463661190000e-002) (5, 7.80578628182411190000e-002) (6, 8.19396972656250000000e-002) (7, -5.02014160156250000000e-002) (8, 9.16137695312500000000e-002) (9, -2.16247569769620900000e-002) (10, 3.64624038338661190000e-002) (11, 4.21142578125000000000e-002) (12, -1.97937022894620900000e-002) (13, -8.36608931422233580000e-002) (14, -8.98742675781250000000e-002) (15, 6.19323737919330600000e-002) (16, 8.77929702401161190000e-002) (17, 2.40966808050870900000e-002) (18, -9.96093750000000000000e-002) (19, -6.46850615739822390000e-002) (20, -1.91833507269620900000e-002) (21, 6.84143081307411190000e-002) (22, 8.58764629811048510000e-003) (23, 5.33020012080669400000e-002) (24, 1.08032231219112870000e-003) (25, -2.09289547055959700000e-002) (26, 7.98583999276161190000e-002) (0, 7.70385786890983580000e-002) (1, 7.54333510994911190000e-002) (2, -5.52429221570491790000e-002) (3, -5.95825202763080600000e-002) (4, 5.10437004268169400000e-002) (5, 8.48388706799596550000e-004) (6, 8.28369185328483580000e-002) (7, 1.32629396393895150000e-002) (8, 8.10058638453483580000e-002) (9, 3.61633300781250000000e-002) (10, -1.08276372775435450000e-002) (11, 9.37255844473838810000e-002) (12, -6.77795410156250000000e-002) (13, -6.83166533708572390000e-002) (14, -2.57141124457120900000e-002) (15, 6.59667998552322390000e-002) (16, 5.01098623499274250000e-003) (17, 2.79296878725290300000e-002) (18, 9.20776352286338810000e-002) (19, 4.18090820312500000000e-002) (20, 4.33471687138080600000e-002) (21, -4.51965332031250000000e-002) (22, -3.25805656611919400000e-002) (23, -9.70092788338661190000e-002) (24, 3.29345725476741790000e-002) (25, -3.76525893807411190000e-002) (26, -7.12280273437500000000e-002) (0, -7.17041045427322390000e-002) (1, 4.49462905526161190000e-002) (2, 1.44531251862645150000e-002) (3, 5.21606467664241790000e-002) (4, 8.66210982203483580000e-002) (5, 8.17993208765983580000e-002) (6, 7.66479521989822390000e-002) (7, 2.27233897894620900000e-002) (8, 7.73193389177322390000e-002) (9, 8.10485854744911190000e-002) (10, -7.06787109375000000000e-002) (11, 2.00927741825580600000e-002) (12, 9.91027876734733580000e-002) (13, -6.62170425057411190000e-002) (14, -6.24267570674419400000e-002) (15, -6.61499053239822390000e-002) (16, 2.86499019712209700000e-002) (17, 7.37304687500000000000e-002) (18, -9.10644531250000000000e-002) (19, -8.47106948494911190000e-002) (20, -9.72290057688951490000e-003) (21, 9.32556167244911190000e-002) (22, 7.02880844473838810000e-002) (23, -2.81982421875000000000e-002) (24, -2.13623046875000000000e-003) (25, -5.73425292968750000000e-002) (26, 9.50866714119911190000e-002) (27, 1.00463870912790300000e-002) (28, 5.02563491463661190000e-002) (29, -3.11889648437500000000e-002) (30, 1.23046878725290300000e-002) (31, 3.42407226562500000000e-002) (32, -3.84948737919330600000e-002) (33, -5.03845214843750000000e-002) (34, -7.17895552515983580000e-002) (35, -9.42810103297233580000e-002) (36, -9.29443389177322390000e-002) (37, -1.96960456669330600000e-002) (38, -7.65991210937500000000e-003) (39, -2.98706050962209700000e-002) (40, -3.27636711299419400000e-002) (41, -3.19702140986919400000e-002) (42, -6.11877441406250000000e-002) (27, -4.15649414062500000000e-002) (28, 4.92614768445491790000e-002) (29, -9.13696270436048510000e-003) (30, 3.42834480106830600000e-002) (31, 6.79931640625000000000e-002) (32, 6.89880400896072390000e-002) (33, 7.75024443864822390000e-002) (34, -3.61450202763080600000e-002) (35, 2.99438480287790300000e-002) (36, -2.63061523437500000000e-002) (37, 6.39404281973838810000e-002) (38, 8.60473662614822390000e-002) (39, 6.92260786890983580000e-002) (40, 8.71276855468750000000e-002) (41, 8.33435058593750000000e-002) (42, -1.18041997775435450000e-002) (27, -3.66455093026161190000e-002) (28, -4.19433601200580600000e-002) (29, -5.46569824218750000000e-002) (30, -2.64892578125000000000e-002) (31, -9.36462432146072390000e-002) (32, -6.39038113877177240000e-003) (33, -3.88977043330669400000e-002) (34, 1.09680173918604850000e-002) (35, -1.60705577582120900000e-002) (36, 5.85937500000000000000e-002) (37, 7.02514648437500000000e-002) (38, -2.05932613462209700000e-002) (39, -3.36853042244911190000e-002) (40, -7.78747573494911190000e-002) (41, 2.60986331850290300000e-002) (42, -6.30187988281250000000e-002) 
