FANN_FLO_2.1
num_layers=3
learning_rate=0.700000
connection_rate=1.000000
network_type=0
learning_momentum=0.000000
training_algorithm=2
train_error_function=1
train_stop_function=0
cascade_output_change_fraction=0.010000
quickprop_decay=-0.000100
quickprop_mu=1.750000
rprop_increase_factor=1.200000
rprop_decrease_factor=0.500000
rprop_delta_min=0.000000
rprop_delta_max=50.000000
rprop_delta_zero=0.100000
cascade_output_stagnation_epochs=12
cascade_candidate_change_fraction=0.010000
cascade_candidate_stagnation_epochs=12
cascade_max_out_epochs=150
cascade_max_cand_epochs=150
cascade_num_candidate_groups=2
bit_fail_limit=3.49999994039535520000e-001
cascade_candidate_limit=1.00000000000000000000e+003
cascade_weight_multiplier=4.00000005960464480000e-001
cascade_activation_functions_count=10
cascade_activation_functions=3 5 7 8 10 11 14 15 16 17 
cascade_activation_steepnesses_count=4
cascade_activation_steepnesses=2.50000000000000000000e-001 5.00000000000000000000e-001 7.50000000000000000000e-001 1.00000000000000000000e+000 
layer_sizes=27 19 10 
scale_included=0
neurons (num_inputs, activation_function, activation_steepness)=(0, 0, 0.00000000000000000000e+000) (0, 0, 0.00000000000000000000e+000) (0, 0, 0.00000000000000000000e+000) (0, 0, 0.00000000000000000000e+000) (0, 0, 0.00000000000000000000e+000) (0, 0, 0.00000000000000000000e+000) (0, 0, 0.00000000000000000000e+000) (0, 0, 0.00000000000000000000e+000) (0, 0, 0.00000000000000000000e+000) (0, 0, 0.00000000000000000000e+000) (0, 0, 0.00000000000000000000e+000) (0, 0, 0.00000000000000000000e+000) (0, 0, 0.00000000000000000000e+000) (0, 0, 0.00000000000000000000e+000) (0, 0, 0.00000000000000000000e+000) (0, 0, 0.00000000000000000000e+000) (0, 0, 0.00000000000000000000e+000) (0, 0, 0.00000000000000000000e+000) (0, 0, 0.00000000000000000000e+000) (0, 0, 0.00000000000000000000e+000) (0, 0, 0.00000000000000000000e+000) (0, 0, 0.00000000000000000000e+000) (0, 0, 0.00000000000000000000e+000) (0, 0, 0.00000000000000000000e+000) (0, 0, 0.00000000000000000000e+000) (0, 0, 0.00000000000000000000e+000) (0, 0, 0.00000000000000000000e+000) (27, 4, 5.00000000000000000000e-001) (27, 4, 5.00000000000000000000e-001) (27, 4, 5.00000000000000000000e-001) (27, 4, 5.00000000000000000000e-001) (27, 4, 5.00000000000000000000e-001) (27, 4, 5.00000000000000000000e-001) (27, 4, 5.00000000000000000000e-001) (27, 4, 5.00000000000000000000e-001) (27, 4, 5.00000000000000000000e-001) (27, 4, 5.00000000000000000000e-001) (27, 4, 5.00000000000000000000e-001) (27, 4, 5.00000000000000000000e-001) (27, 4, 5.00000000000000000000e-001) (27, 4, 5.00000000000000000000e-001) (27, 4, 5.00000000000000000000e-001) (27, 4, 5.00000000000000000000e-001) (27, 4, 5.00000000000000000000e-001) (27, 4, 5.00000000000000000000e-001) (0, 0, 0.00000000000000000000e+000) (19, 4, 5.00000000000000000000e-001) (19, 4, 5.00000000000000000000e-001) (19, 4, 5.00000000000000000000e-001) (19, 4, 5.00000000000000000000e-001) (19, 4, 5.00000000000000000000e-001) (19, 4, 5.00000000000000000000e-001) (19, 4, 5.00000000000000000000e-001) (19, 4, 5.00000000000000000000e-001) (19, 4, 5.00000000000000000000e-001) (0, 0, 0.00000000000000000000e+000) 
connections (connected_to_neuron, weight)=(0, 2.05860280990600590000e+000) (1, -4.93326091766357420000e+000) (2, -7.48717367649078370000e-001) (3, 7.86449813842773440000e+000) (4, -3.90399312973022460000e+000) (5, -4.77340927124023440000e+001) (6, -5.23816642761230470000e+001) (7, -4.79535980224609380000e+001) (8, 7.50998437404632570000e-001) (9, 1.08686889648437500000e+003) (10, -2.15060714721679690000e+002) (11, -4.86147642135620120000e+000) (12, 2.21401786804199220000e+000) (13, -1.38376903533935550000e+001) (14, 3.95504760742187500000e+000) (15, 4.09789323806762700000e+000) (16, -1.04574174880981450000e+001) (17, -1.84175586700439450000e+000) (18, 6.48858547210693360000e-001) (19, -6.45716381072998050000e+000) (20, -1.31913681030273440000e+001) (21, -2.36563282012939450000e+001) (22, -9.96183700561523440000e+001) (23, -1.21006336212158200000e+001) (24, 7.81377258300781250000e+002) (25, 1.61740469932556150000e+000) (26, 1.50702133774757390000e-001) (0, -3.06071901321411130000e+000) (1, -7.96575129032135010000e-001) (2, -1.03514838218688960000e+000) (3, -2.51713037490844730000e+000) (4, -4.54395961761474610000e+000) (5, -1.95737123489379880000e+000) (6, -2.86951637268066410000e+000) (7, -4.16986793279647830000e-002) (8, -2.22333288192749020000e+000) (9, -5.80500427246093750000e+002) (10, 2.36404266357421870000e+002) (11, -2.80747652053833010000e+000) (12, -2.63380002975463870000e+000) (13, -2.56490182876586910000e+000) (14, -2.46677827835083010000e+000) (15, -1.18333554267883300000e+000) (16, -6.94173049926757810000e+001) (17, -4.54634714126586910000e+000) (18, -3.28450679779052730000e+000) (19, -2.68212270736694340000e+000) (20, -3.35371446609497070000e+000) (21, -6.91022127866745000000e-002) (22, 2.14334506988525390000e+001) (23, -4.74489196777343750000e+002) (24, 2.90615634918212890000e+001) (25, 5.90890388488769530000e+001) (26, -2.32988786697387700000e+000) (0, 7.74691104888916020000e-001) (1, -3.38916358947753910000e+001) (2, 1.57129693031311040000e+000) (3, 7.03354120254516600000e-001) (4, -1.74599692225456240000e-001) (5, 7.28251552581787110000e+000) (6, 9.18357551097869870000e-001) (7, 4.82696151733398440000e+000) (8, 9.77969020605087280000e-002) (9, -2.38546066284179690000e+001) (10, -1.03901886940002440000e+000) (11, -8.24139709472656250000e+001) (12, 6.13151907920837400000e-001) (13, -1.74997434020042420000e-001) (14, -1.99908524751663210000e-001) (15, -8.13336551189422610000e-001) (16, 4.46119832992553710000e+000) (17, 2.66375124454498290000e-001) (18, -5.97472488880157470000e-003) (19, 4.71631646156311040000e-001) (20, 1.13327789306640620000e+000) (21, 8.50576591491699220000e+000) (22, -4.87791204452514650000e+000) (23, -2.20573854446411130000e+000) (24, -6.31716003417968750000e+002) (25, -3.16381335258483890000e-001) (26, 1.39366239309310910000e-002) (0, -1.19619321823120120000e+000) (1, -1.37153576660156250000e+003) (2, -8.88550842285156250000e+002) (3, 5.44266014099121090000e+001) (4, -2.01094031333923340000e+000) (5, -1.31347747802734380000e+002) (6, -1.68546047210693360000e+001) (7, -2.45032167434692380000e+000) (8, -7.81109523773193360000e+000) (9, -1.11614780426025390000e+001) (10, -1.02430322265625000000e+003) (11, -3.12118864059448240000e+000) (12, 4.60945725440979000000e-001) (13, -1.91797447204589840000e+000) (14, 2.65905380249023440000e+000) (15, -4.81892526149749760000e-002) (16, -8.92336177825927730000e+000) (17, -1.72386527061462400000e-001) (18, -5.83533227443695070000e-001) (19, -4.12823638916015630000e+001) (20, -2.89623584747314450000e+001) (21, -2.74984008789062500000e+002) (22, -5.33581018447875980000e+000) (23, -2.11947202682495120000e-001) (24, -1.31015920639038090000e+001) (25, -1.90227981567382810000e+002) (26, -9.85449969768524170000e-001) (0, -6.06136894226074220000e+000) (1, 4.75757956504821780000e-001) (2, -3.59145832061767580000e+000) (3, -3.03322315216064450000e+000) (4, 5.94557449221611020000e-002) (5, -3.21746063232421870000e+000) (6, 1.73407382965087890000e+001) (7, 1.59583158493041990000e+001) (8, -1.08863162994384770000e+000) (9, 1.17285102844238280000e+002) (10, -4.82559623718261720000e+001) (11, 9.41241085529327390000e-002) (12, -2.24997663497924800000e+000) (13, 1.44981231689453130000e+001) (14, -7.43241691589355470000e+000) (15, -2.25186347961425780000e+000) (16, 4.84869718551635740000e+000) (17, -2.80794858932495120000e+000) (18, -1.03053641319274900000e+000) (19, -1.45838916301727290000e-001) (20, -1.95050048828125000000e+000) (21, -1.23107223510742190000e+002) (22, 2.85271392822265620000e+002) (23, 1.28367919921875000000e+002) (24, -6.58544921875000000000e+001) (25, -3.91632652282714840000e+001) (26, -4.57361638545989990000e-001) (0, 1.03778183460235600000e-001) (1, 5.46788835525512700000e+000) (2, 4.86194343566894530000e+001) (3, -5.45105636119842530000e-001) (4, -2.85978019237518310000e-001) (5, 2.15949382781982420000e+001) (6, 2.07189130783081050000e+000) (7, 4.50356216430664060000e+001) (8, 6.65707588195800780000e-001) (9, -6.06546401977539060000e+001) (10, -5.84272918701171880000e+001) (11, 1.64969146251678470000e-001) (12, -8.49925279617309570000e-002) (13, -1.24515843391418460000e+000) (14, -3.08047580718994140000e+000) (15, 1.92920188903808590000e+001) (16, 1.57414901733398440000e+002) (17, 5.02114486694335940000e+000) (18, 9.51296627521514890000e-001) (19, 6.83365046977996830000e-001) (20, 2.12226295471191410000e+000) (21, -7.92507839202880860000e+000) (22, 5.62971258163452150000e+000) (23, 2.22149734497070310000e+002) (24, 2.96916275024414060000e+001) (25, 5.75836849212646480000e+000) (26, 3.11926722526550290000e-001) (0, 8.59338939189910890000e-001) (1, 8.35653305053710940000e+000) (2, 8.24966812133789060000e+000) (3, -6.70748214721679690000e+001) (4, -3.85703921318054200000e-001) (5, 4.12013206481933590000e+001) (6, -2.97878742218017580000e-001) (7, 1.52430315017700200000e+001) (8, -6.85789227485656740000e-001) (9, -7.34845336914062500000e+002) (10, -1.14493652343750000000e+002) (11, 4.29495573043823240000e+000) (12, -5.68691939115524290000e-002) (13, 1.07403707504272460000e+000) (14, -4.02808845043182370000e-001) (15, -3.64976730346679690000e+001) (16, -1.15140762329101560000e+001) (17, 7.30287671089172360000e-001) (18, 1.10002450942993160000e+001) (19, 6.44907569885253910000e+000) (20, 1.25947093963623050000e+001) (21, -1.98058715820312500000e+002) (22, -1.45336230468750000000e+003) (23, 1.96237525939941410000e+001) (24, -6.96750259399414060000e+001) (25, -1.49932592773437500000e+003) (26, 5.25258839130401610000e-001) (0, 1.96597909927368160000e+000) (1, -1.60465202331542970000e+001) (2, -1.06871342658996580000e+000) (3, -5.86519479751586910000e-001) (4, 6.11788988113403320000e-001) (5, 5.50611686706542970000e+000) (6, -1.68306612968444820000e+000) (7, 1.58315217494964600000e+000) (8, -2.14793547987937930000e-001) (9, 5.98339438438415530000e-001) (10, 1.15584790706634520000e+000) (11, 1.17213213443756100000e+000) (12, 3.96433353424072270000e-001) (13, 1.26771196722984310000e-001) (14, 3.39323043823242190000e-001) (15, -4.50775980949401860000e-001) (16, 2.50656906127929690000e+002) (17, 3.03211569786071780000e-001) (18, 1.06347024440765380000e+000) (19, 3.49778366088867190000e+000) (20, 1.55514230728149410000e+001) (21, 1.37231674194335940000e+002) (22, -8.03121871948242190000e+001) (23, 1.22443187236785890000e+000) (24, -1.24692878723144530000e+002) (25, -1.58235382080078130000e+002) (26, 2.33178481459617610000e-001) (0, 8.25485348701477050000e-001) (1, 1.18142914772033690000e+000) (2, 2.32974216341972350000e-001) (3, -1.78945302963256840000e-001) (4, -9.15284574031829830000e-001) (5, -2.63459720611572270000e+001) (6, 5.73055803775787350000e-001) (7, 7.16633260250091550000e-001) (8, 9.65601801872253420000e-001) (9, -7.46478347778320310000e+001) (10, 1.75219787597656250000e+002) (11, 8.68645012378692630000e-002) (12, 3.25955957174301150000e-001) (13, 2.80782878398895260000e-001) (14, 7.53798067569732670000e-001) (15, 4.48849678039550780000e-001) (16, -3.03109222412109370000e+002) (17, -2.84937191009521480000e+000) (18, -1.35427451133728030000e+000) (19, -1.58200085163116460000e-001) (20, -3.44066524505615230000e+000) (21, 4.12548112869262700000e+000) (22, -1.04580116271972660000e+001) (23, -5.36978027343750000000e+002) (24, 7.27399291992187500000e+001) (25, 2.38896621704101560000e+002) (26, 2.03805163502693180000e-001) (0, -3.71738672256469730000e-001) (1, -9.83726441860198970000e-001) (2, -7.76333510875701900000e-001) (3, 2.44820232391357420000e+001) (4, 1.32111811637878420000e+000) (5, -1.37767496109008790000e+001) (6, 9.06513881683349610000e+000) (7, -2.27843284606933590000e+000) (8, -4.97007608413696290000e-001) (9, -1.55343017578125000000e+001) (10, -1.34969650268554690000e+002) (11, -3.36191713809967040000e-001) (12, -9.42267119884490970000e-001) (13, -8.28496396541595460000e-001) (14, 9.35816764831542970000e-002) (15, -7.45329260826110840000e-001) (16, -5.57422280311584470000e-001) (17, 4.44691514968872070000e+000) (18, -1.03348851203918460000e+000) (19, -7.84340679645538330000e-001) (20, -1.21545410156250000000e+000) (21, 8.17006988525390630000e+001) (22, -7.01429986953735350000e+000) (23, -6.31538696289062500000e+001) (24, -1.02282861328125000000e+003) (25, -1.08033016324043270000e-001) (26, -9.28058683872222900000e-001) (0, 1.85796070098876950000e+000) (1, 3.71043413877487180000e-001) (2, 1.25107765197753910000e+000) (3, -2.24487006664276120000e-001) (4, -5.73660230636596680000e+000) (5, -8.01759338378906250000e+001) (6, -3.21140384674072270000e+000) (7, -3.04903268814086910000e+000) (8, 5.38209259510040280000e-001) (9, 7.36612548828125000000e+001) (10, 3.36687850952148440000e+001) (11, -1.28385090827941890000e+000) (12, 1.10751366615295410000e+000) (13, -1.12829661369323730000e+000) (14, 1.50249052047729490000e+000) (15, 8.07122945785522460000e-001) (16, -1.91888785362243650000e+000) (17, -3.04068040847778320000e+000) (18, 4.00258600711822510000e-001) (19, -6.77951574325561520000e+000) (20, 6.08041346073150630000e-001) (21, 1.35122413635253910000e+001) (22, -3.97611808776855470000e+001) (23, -5.43205165863037110000e+000) (24, 1.27724485397338870000e+001) (25, 1.15403991699218750000e+002) (26, 4.76115494966506960000e-001) (0, 1.29532361030578610000e+000) (1, -1.86854038238525390000e+001) (2, -2.21475887298583980000e+000) (3, -1.07045030593872070000e+000) (4, -4.89632248878479000000e-001) (5, -2.10991621017456050000e+000) (6, -3.36067008972167970000e+000) (7, -3.27066764831542970000e+001) (8, 3.25902414321899410000e+000) (9, 1.86530723571777340000e+001) (10, 2.28226780891418460000e-001) (11, -8.72982680797576900000e-001) (12, -1.60257875919342040000e-001) (13, -1.47099304199218750000e+000) (14, 1.70094909667968750000e+001) (15, 1.25359992980957030000e+001) (16, 1.35280189514160160000e+001) (17, -6.77500545978546140000e-001) (18, -7.08044767379760740000e-002) (19, 1.64942693710327150000e+000) (20, 2.54100143909454350000e-001) (21, 9.94751663208007810000e+001) (22, -1.46598472595214840000e+001) (23, -8.86301574707031250000e+002) (24, 1.59863433837890630000e+002) (25, 9.27050018310546870000e+000) (26, -3.97799044847488400000e-001) (0, 3.11637830734252930000e+000) (1, 1.88754811882972720000e-001) (2, -4.63457202911376950000e+000) (3, -1.99280643463134770000e+000) (4, 2.21271181106567380000e+000) (5, -7.65120315551757810000e+001) (6, -1.41447186470031740000e+000) (7, -2.23162498474121090000e+001) (8, 2.16270771026611330000e+001) (9, 4.27325010299682620000e+000) (10, 9.91053009033203120000e+000) (11, 1.03983068466186520000e+000) (12, -3.02917528152465820000e+000) (13, 1.65185093879699710000e+000) (14, 6.18608951568603520000e+000) (15, 1.57680358886718750000e+001) (16, -1.41904807090759280000e+000) (17, -1.82366156578063960000e+000) (18, -1.38927102088928220000e+000) (19, 8.90642404556274410000e-005) (20, -8.54142010211944580000e-001) (21, 2.00520753860473630000e+000) (22, -3.19065380096435550000e+000) (23, -1.49929821777343750000e+003) (24, 7.82351589202880860000e+000) (25, 2.33964061737060550000e+001) (26, -9.09360647201538090000e-002) (0, -5.09895849227905270000e+000) (1, -9.45621299743652340000e+000) (2, 2.30757503509521480000e+001) (3, 1.51651182174682620000e+001) (4, -2.72042846679687500000e+000) (5, -6.14632904529571530000e-001) (6, -1.22483611106872560000e+000) (7, -4.24161224365234380000e+001) (8, -2.87363499402999880000e-001) (9, -2.56394672393798830000e+000) (10, -3.26866874694824220000e+001) (11, -7.08083963394165040000e+000) (12, 2.73372381925582890000e-001) (13, -1.05771865844726560000e+001) (14, 2.06771087646484370000e+000) (15, 3.36030578613281250000e+001) (16, 7.94214706420898440000e+001) (17, 7.22483539581298830000e+000) (18, -9.97227370738983150000e-001) (19, -6.69257116317749020000e+000) (20, -2.02994613647460940000e+001) (21, -2.02121906280517580000e+001) (22, 5.50393724441528320000e+000) (23, 2.12943664550781250000e+002) (24, 8.18341674804687500000e+001) (25, 1.49770774841308590000e+001) (26, 5.16275942325592040000e-001) (0, -8.96734809875488280000e+000) (1, -2.59669244289398190000e-001) (2, -6.69444751739501950000e+000) (3, -3.87960004806518550000e+000) (4, 2.80981588363647460000e+000) (5, 2.94118404388427730000e-001) (6, 5.09991550445556640000e+000) (7, 8.51644515991210940000e+000) (8, 1.60814791917800900000e-001) (9, -5.15694351196289060000e+001) (10, 1.50000000000000000000e+003) (11, 7.05942749977111820000e-001) (12, -1.68597888946533200000e+001) (13, 6.25260353088378910000e+000) (14, -8.87131690979003910000e+000) (15, -3.61843287944793700000e-001) (16, -2.42142581939697270000e+000) (17, -2.06923991441726680000e-001) (18, 8.95030051469802860000e-002) (19, 4.10749282836914060000e+001) (20, 3.45576256513595580000e-001) (21, -3.73582601547241210000e+000) (22, 1.14709167480468750000e+003) (23, -1.89184039831161500000e-001) (24, -1.98521442413330080000e+001) (25, -1.03717203140258790000e+001) (26, 2.80275791883468630000e-002) (0, 4.18302392959594730000e+000) (1, -4.55789184570312500000e+002) (2, -4.60368461608886720000e+001) (3, -1.11516189575195310000e+000) (4, -5.22110819816589360000e-001) (5, -4.54793052673339840000e+001) (6, -9.16618883609771730000e-001) (7, -2.33387481689453120000e+002) (8, -3.04440259933471680000e-001) (9, -7.42369592189788820000e-002) (10, -4.44525489807128910000e+001) (11, -4.85685058593750000000e+002) (12, -1.58403944969177250000e+000) (13, -3.19842934608459470000e-001) (14, 4.58177745342254640000e-001) (15, -1.55684769153594970000e-001) (16, 9.13997113704681400000e-001) (17, -4.26497936248779300000e-001) (18, -4.36192750930786130000e-001) (19, 6.32586479187011720000e+000) (20, -1.06776191711425780000e+002) (21, 1.54109544754028320000e+001) (22, -1.49940344238281250000e+003) (23, -2.41183975219726560000e+002) (24, -5.19833801269531250000e+002) (25, -1.44093027114868160000e+001) (26, -3.57881307601928710000e-001) (0, 1.53089799880981450000e+001) (1, -7.40402460098266600000e+000) (2, -1.06611084938049320000e+000) (3, 1.76591858267784120000e-001) (4, -3.36103773117065430000e+000) (5, -7.76100301742553710000e+000) (6, -2.44864788055419920000e+001) (7, -2.14726895093917850000e-001) (8, 6.38980805873870850000e-001) (9, -2.67717987060546870000e+002) (10, -3.16661472320556640000e+001) (11, -1.72359800338745120000e+000) (12, 1.49423384666442870000e+000) (13, -4.20120668411254880000e+000) (14, 1.55060482025146480000e+000) (15, 7.42159128189086910000e+000) (16, 1.55662124633789060000e+002) (17, -5.24937200546264650000e+000) (18, 1.28982234001159670000e+000) (19, 3.37497413158416750000e-001) (20, 4.74312877655029300000e+000) (21, -6.77002639770507810000e+001) (22, -1.59082210063934330000e+000) (23, -9.03353332519531250000e+002) (24, 2.96149414062500000000e+002) (25, -2.64538145065307620000e+000) (26, 2.47987687587738040000e-001) (0, 8.83773899078369140000e+000) (1, 1.60838842391967770000e+000) (2, 7.54211902618408200000e+000) (3, -3.59734010696411130000e+000) (4, -1.03081445693969730000e+001) (5, -8.38855285644531250000e+001) (6, -2.20957946777343750000e+001) (7, -8.85297834873199460000e-001) (8, 1.59907937049865720000e+000) (9, 8.95229530334472660000e+000) (10, -6.75839004516601560000e+001) (11, -4.26887214183807370000e-001) (12, 3.67924499511718750000e+000) (13, -3.40540361404418950000e+000) (14, 3.85360813140869140000e+000) (15, 6.98395013809204100000e-001) (16, -7.78148591518402100000e-001) (17, -2.66456270217895510000e+000) (18, 4.67890918254852290000e-001) (19, -3.97423267364501950000e+000) (20, 7.62914955615997310000e-001) (21, -6.01206626892089840000e+001) (22, -1.49886450195312500000e+003) (23, 1.69232006072998050000e+001) (24, 7.71867990493774410000e+000) (25, 5.92455148696899410000e+000) (26, 2.14126214385032650000e-001) (27, 7.12812840938568120000e-001) (28, 3.01772499084472660000e+000) (29, 8.33708312988281250000e+002) (30, 7.55132141113281250000e+002) (31, 1.02836055755615230000e+001) (32, 2.12367463111877440000e+000) (33, 9.78868579864501950000e+000) (34, -8.00564348697662350000e-001) (35, -3.25528192520141600000e+000) (36, -2.32456329345703120000e+002) (37, -2.44694271087646480000e+001) (38, 2.12200626730918880000e-001) (39, -3.67859661579132080000e-001) (40, 1.62950992584228520000e+000) (41, 1.83297717571258540000e+000) (42, 1.50000000000000000000e+003) (43, -1.68340131640434270000e-001) (44, 7.95572936534881590000e-001) (45, 2.17355504631996150000e-001) (27, 1.71100044250488280000e+000) (28, 2.10226821899414060000e+000) (29, 1.77681179046630860000e+001) (30, 1.50000000000000000000e+003) (31, -5.36934709548950200000e+000) (32, -7.89522504806518550000e+000) (33, 6.60436630249023440000e+000) (34, 1.35868930816650390000e+000) (35, 3.71116816997528080000e-001) (36, 1.09662218093872070000e+001) (37, 1.28847408294677730000e+000) (38, 1.34920251369476320000e+000) (39, 1.26171517372131350000e+000) (40, -5.37384376525878910000e+001) (41, 1.13009765744209290000e-001) (42, 1.34055456542968750000e+003) (43, 3.28705120086669920000e+000) (44, 3.25138139724731450000e+000) (45, 2.03253433108329770000e-001) (27, -1.91142892837524410000e+000) (28, 1.63212203979492190000e+002) (29, 1.32179098129272460000e+001) (30, 1.50000000000000000000e+003) (31, 1.06533746719360350000e+001) (32, 1.34931850433349610000e+000) (33, 7.67709302902221680000e+000) (34, 2.16982293128967290000e+000) (35, -1.55723632812500000000e+002) (36, 2.66123390197753910000e+000) (37, -2.59724330902099610000e+000) (38, 4.34278190135955810000e-001) (39, 1.06473624706268310000e-001) (40, -1.25286206603050230000e-001) (41, 8.02039623260498050000e+000) (42, 1.50000000000000000000e+003) (43, 1.89317017793655400000e-002) (44, -2.17837715148925780000e+001) (45, -3.75352799892425540000e-003) (27, -2.30555295944213870000e+000) (28, 1.35044085979461670000e+000) (29, 4.16585969924926760000e+000) (30, 1.35749169921875000000e+003) (31, 7.15262317657470700000e+000) (32, 6.16294205188751220000e-001) (33, 4.54514343261718750000e+002) (34, 1.90614134073257450000e-001) (35, 2.95365303754806520000e-001) (36, 7.37209856510162350000e-001) (37, -2.26125270128250120000e-002) (38, -5.61017131805419920000e+000) (39, -8.40986073017120360000e-001) (40, -7.36170043945312500000e+001) (41, 1.18574523925781250000e+000) (42, 1.50000000000000000000e+003) (43, 9.11324381828308110000e-001) (44, 4.66526184082031250000e+001) (45, 9.51484218239784240000e-002) (27, 9.16511356830596920000e-001) (28, 2.74809646606445310000e+000) (29, 1.50575866699218750000e+002) (30, 1.50000000000000000000e+003) (31, 1.25009787082672120000e+000) (32, 1.66252061724662780000e-001) (33, 9.26838562011718750000e+002) (34, -1.24951377868652340000e+002) (35, 2.12694072723388670000e+000) (36, 1.04297859191894530000e+002) (37, 2.07187867164611820000e+000) (38, 1.35787218809127810000e-001) (39, 6.61652863025665280000e-001) (40, 1.57407677173614500000e+000) (41, 6.94617331027984620000e-001) (42, 1.50000000000000000000e+003) (43, 9.71837818622589110000e-001) (44, 2.33332881927490230000e+001) (45, 2.97983348369598390000e-001) (27, 3.90079617500305180000e-002) (28, 1.96954174041748050000e+001) (29, -2.38544178009033200000e+000) (30, 1.18027233886718750000e+003) (31, -5.55527031421661380000e-001) (32, 3.54810357093811040000e-001) (33, 6.93176746368408200000e+000) (34, -8.98609459400177000000e-001) (35, -5.76726150512695310000e+000) (36, -1.04818964004516600000e+001) (37, -1.80200672149658200000e+000) (38, -3.40150892734527590000e-001) (39, -7.28563487529754640000e-001) (40, 8.67046654224395750000e-001) (41, -1.22546434402465820000e+001) (42, 1.50000000000000000000e+003) (43, 7.42851018905639650000e-001) (44, 5.16374435424804690000e+001) (45, -2.94907718896865840000e-001) (27, 9.03367233276367190000e+000) (28, -6.83844070434570310000e+001) (29, 3.74498224258422850000e+000) (30, 1.19516540527343750000e+003) (31, -4.92650489807128910000e+001) (32, 2.19660580158233640000e-001) (33, 7.21238374710083010000e+000) (34, 7.00462460517883300000e-001) (35, -3.01711368560791020000e+000) (36, 1.05728607177734380000e+001) (37, -1.35833239555358890000e+000) (38, 2.51270592212677000000e-001) (39, -1.42360925674438480000e+000) (40, -1.12112745642662050000e-001) (41, -1.70826473236083980000e+001) (42, 1.50000000000000000000e+003) (43, 5.32063663005828860000e-001) (44, -2.24973220825195310000e+001) (45, 1.13082662224769590000e-001) (27, -1.83100051879882810000e+001) (28, 3.73806858062744140000e+000) (29, 3.04509258270263670000e+000) (30, 1.41807702636718750000e+003) (31, -1.65595989227294920000e+001) (32, 4.48276251554489140000e-002) (33, 7.04777832031250000000e+002) (34, 1.70610213279724120000e+000) (35, 6.07735967636108400000e+000) (36, 1.36752426624298100000e+000) (37, -5.56164443492889400000e-001) (38, 3.73185992240905760000e-001) (39, 1.68165445327758790000e+000) (40, 5.91494262218475340000e-001) (41, 5.80666363239288330000e-002) (42, 1.44219995117187500000e+003) (43, 2.56097972393035890000e-001) (44, -1.41566514968872070000e-001) (45, -8.26147422194480900000e-002) (27, 5.45350456237792970000e+000) (28, -2.39767611026763920000e-001) (29, 4.62635934352874760000e-001) (30, 1.40758886718750000000e+003) (31, 8.29718780517578120000e+000) (32, -1.19894723892211910000e+001) (33, 1.32851208496093750000e+003) (34, -4.83838200569152830000e-001) (35, 4.05758917331695560000e-002) (36, 5.71558332443237300000e+000) (37, 9.23503577709198000000e-001) (38, -2.52197206020355220000e-001) (39, -2.86294817924499510000e-001) (40, 3.78635444641113280000e+001) (41, -2.42989480495452880000e-001) (42, 1.50000000000000000000e+003) (43, -1.68758331298828120000e+002) (44, -1.49391638183593750000e+003) (45, -4.01653110980987550000e-001) 
