FANN_FLO_2.1
num_layers=3
learning_rate=0.700000
connection_rate=1.000000
network_type=0
learning_momentum=0.000000
training_algorithm=2
train_error_function=1
train_stop_function=0
cascade_output_change_fraction=0.010000
quickprop_decay=-0.000100
quickprop_mu=1.750000
rprop_increase_factor=1.200000
rprop_decrease_factor=0.500000
rprop_delta_min=0.000000
rprop_delta_max=50.000000
rprop_delta_zero=0.100000
cascade_output_stagnation_epochs=12
cascade_candidate_change_fraction=0.010000
cascade_candidate_stagnation_epochs=12
cascade_max_out_epochs=150
cascade_max_cand_epochs=150
cascade_num_candidate_groups=2
bit_fail_limit=3.49999994039535520000e-001
cascade_candidate_limit=1.00000000000000000000e+003
cascade_weight_multiplier=4.00000005960464480000e-001
cascade_activation_functions_count=10
cascade_activation_functions=3 5 7 8 10 11 14 15 16 17 
cascade_activation_steepnesses_count=4
cascade_activation_steepnesses=2.50000000000000000000e-001 5.00000000000000000000e-001 7.50000000000000000000e-001 1.00000000000000000000e+000 
layer_sizes=27 16 7 
scale_included=0
neurons (num_inputs, activation_function, activation_steepness)=(0, 0, 0.00000000000000000000e+000) (0, 0, 0.00000000000000000000e+000) (0, 0, 0.00000000000000000000e+000) (0, 0, 0.00000000000000000000e+000) (0, 0, 0.00000000000000000000e+000) (0, 0, 0.00000000000000000000e+000) (0, 0, 0.00000000000000000000e+000) (0, 0, 0.00000000000000000000e+000) (0, 0, 0.00000000000000000000e+000) (0, 0, 0.00000000000000000000e+000) (0, 0, 0.00000000000000000000e+000) (0, 0, 0.00000000000000000000e+000) (0, 0, 0.00000000000000000000e+000) (0, 0, 0.00000000000000000000e+000) (0, 0, 0.00000000000000000000e+000) (0, 0, 0.00000000000000000000e+000) (0, 0, 0.00000000000000000000e+000) (0, 0, 0.00000000000000000000e+000) (0, 0, 0.00000000000000000000e+000) (0, 0, 0.00000000000000000000e+000) (0, 0, 0.00000000000000000000e+000) (0, 0, 0.00000000000000000000e+000) (0, 0, 0.00000000000000000000e+000) (0, 0, 0.00000000000000000000e+000) (0, 0, 0.00000000000000000000e+000) (0, 0, 0.00000000000000000000e+000) (0, 0, 0.00000000000000000000e+000) (27, 4, 5.00000000000000000000e-001) (27, 4, 5.00000000000000000000e-001) (27, 4, 5.00000000000000000000e-001) (27, 4, 5.00000000000000000000e-001) (27, 4, 5.00000000000000000000e-001) (27, 4, 5.00000000000000000000e-001) (27, 4, 5.00000000000000000000e-001) (27, 4, 5.00000000000000000000e-001) (27, 4, 5.00000000000000000000e-001) (27, 4, 5.00000000000000000000e-001) (27, 4, 5.00000000000000000000e-001) (27, 4, 5.00000000000000000000e-001) (27, 4, 5.00000000000000000000e-001) (27, 4, 5.00000000000000000000e-001) (27, 4, 5.00000000000000000000e-001) (0, 0, 0.00000000000000000000e+000) (16, 4, 5.00000000000000000000e-001) (16, 4, 5.00000000000000000000e-001) (16, 4, 5.00000000000000000000e-001) (16, 4, 5.00000000000000000000e-001) (16, 4, 5.00000000000000000000e-001) (16, 4, 5.00000000000000000000e-001) (0, 0, 0.00000000000000000000e+000) 
connections (connected_to_neuron, weight)=(0, -5.13434410095214840000e+001) (1, -7.27760982513427730000e+000) (2, 8.15524768829345700000e+000) (3, 2.63499498367309570000e+000) (4, 2.89565963745117190000e+001) (5, 1.55925918579101560000e+002) (6, 2.66550617218017580000e+001) (7, 6.99867773056030270000e+000) (8, -2.85310554504394530000e+000) (9, 1.68785057067871090000e+001) (10, -4.84792089462280270000e+000) (11, -5.43581676483154300000e+000) (12, -2.30333179235458370000e-001) (13, -2.51870679855346680000e+000) (14, -2.62780132293701170000e+001) (15, 2.09752273559570310000e+000) (16, 1.05430250167846680000e+001) (17, 9.74878978729248050000e+000) (18, -1.96411216259002690000e+000) (19, 8.07832717895507810000e+000) (20, 2.14026498794555660000e+000) (21, -2.49058294296264650000e+000) (22, 3.37921447753906250000e+002) (23, 7.09612121582031250000e+001) (24, 2.75906467437744140000e+000) (25, 3.96688613891601560000e+001) (26, -3.60601603984832760000e-001) (0, 1.94905745983123780000e+000) (1, 2.54119506835937500000e+002) (2, 2.89715557098388670000e+001) (3, 2.01730585098266600000e+000) (4, 1.02350893020629880000e+001) (5, 9.87612152099609380000e+001) (6, 6.84621765136718750000e+002) (7, 2.72175445556640620000e+002) (8, 4.78429377079010010000e-001) (9, -1.57398223876953130000e+000) (10, -3.22821922302246090000e+001) (11, 1.78334307670593260000e+000) (12, 1.39908609390258790000e+001) (13, 1.71620559692382810000e+000) (14, 9.08201694488525390000e+000) (15, 1.32224578857421870000e+001) (16, -3.24620330810546870000e+002) (17, 1.47660756111145020000e+000) (18, 2.26421117782592770000e+000) (19, 2.91597664356231690000e-001) (20, 1.91502349853515620000e+002) (21, 1.53240585327148440000e+001) (22, -2.95212697982788090000e+000) (23, 1.31297021484375000000e+003) (24, 7.77227687835693360000e+000) (25, 4.32195425033569340000e+000) (26, 1.13567698001861570000e+000) (0, -3.86642038822174070000e-001) (1, -1.29148206710815430000e+001) (2, -2.75718355178833010000e+000) (3, 2.98071956634521480000e+001) (4, -5.25777041912078860000e-001) (5, 3.74032821655273440000e+001) (6, -7.17394733428955080000e+000) (7, -1.28418521881103520000e+001) (8, 2.65796613693237300000e+000) (9, -5.05266494750976560000e+001) (10, -1.25241374969482420000e+001) (11, 5.44342947006225590000e+000) (12, -1.70262470245361330000e+001) (13, 2.86499214172363280000e+000) (14, 6.00754737854003910000e+000) (15, -3.93388211727142330000e-001) (16, 7.17415466308593750000e+002) (17, -5.56985795497894290000e-001) (18, 6.71041822433471680000e+000) (19, 3.91430807113647460000e+000) (20, 1.47009181976318360000e+000) (21, -1.10849485397338870000e+001) (22, -6.47482585906982420000e+000) (23, 1.49325402832031250000e+003) (24, -1.04249515533447270000e+001) (25, 1.20771265029907230000e+001) (26, -2.45600044727325440000e-002) (0, 2.64545269012451170000e+001) (1, 5.19726943969726560000e+001) (2, 2.07730369567871090000e+001) (3, 6.06901168823242190000e+000) (4, -7.50750184059143070000e-001) (5, -1.95030899047851560000e+001) (6, -1.81827430725097660000e+001) (7, 2.43111686706542970000e+001) (8, 3.83126640319824220000e+000) (9, 6.59865093231201170000e+000) (10, 5.09832687377929690000e+001) (11, -2.09938764572143550000e+000) (12, 2.36398458480834960000e+000) (13, -2.50333786010742190000e+000) (14, 2.56748437881469730000e+000) (15, 2.23065137863159180000e+000) (16, -1.92960617065429690000e+002) (17, -1.56867098808288570000e+000) (18, -2.01313591003417970000e+000) (19, 3.57253313064575200000e-001) (20, -1.72467517852783200000e+000) (21, 1.60809059143066410000e+001) (22, -3.53124427795410160000e+001) (23, -1.07552941894531250000e+003) (24, 4.04706382751464840000e+001) (25, 2.29201984405517580000e+001) (26, -7.59523868560791020000e-001) (0, 7.29209303855896000000e-001) (1, -6.48951578140258790000e+000) (2, -1.21389472484588620000e+000) (3, -1.21197962760925290000e+000) (4, 2.70939254760742190000e+000) (5, -3.82724905014038090000e+000) (6, -1.19806575775146480000e+001) (7, -6.14282188415527340000e+001) (8, 1.23678255081176760000e+000) (9, 1.78115234375000000000e+002) (10, -4.32710189819335940000e+001) (11, 1.39379668235778810000e+000) (12, 8.21634101867675780000e+000) (13, 2.21452713012695310000e+000) (14, 1.40371656417846680000e+000) (15, 5.58381843566894530000e+000) (16, 6.82285766601562500000e+001) (17, 2.66602039337158200000e+000) (18, 1.20567631721496580000e+000) (19, -8.97619533538818360000e+000) (20, 3.87614011764526370000e+000) (21, 6.57041072845458980000e-001) (22, -2.46870189905166630000e-001) (23, 9.02529335021972660000e+000) (24, 1.17329244613647460000e+001) (25, 1.19323989868164060000e+002) (26, 1.92491900920867920000e+000) (0, 6.89083175659179690000e+001) (1, -9.26896381378173830000e+000) (2, 6.30020189285278320000e+000) (3, 5.78005266189575200000e+000) (4, -1.61137603759765620000e+002) (5, -2.22745620727539060000e+002) (6, -1.87317790985107420000e+001) (7, -3.40815162658691410000e+001) (8, -2.53045082092285160000e+000) (9, -3.42925354003906250000e+002) (10, -6.62084884643554690000e+001) (11, -1.29292118549346920000e+000) (12, -2.38127079010009770000e+001) (13, -8.72529792785644530000e+000) (14, 6.06413040161132810000e+001) (15, -5.90400552749633790000e+000) (16, 8.73079147338867190000e+001) (17, -4.68502092361450200000e+000) (18, -3.77510643005371090000e+000) (19, -2.81939819335937500000e+002) (20, -3.72192153930664060000e+001) (21, -3.08839111328125000000e+001) (22, -2.75166412353515630000e+002) (23, 1.06689826965332030000e+002) (24, -7.39475555419921880000e+001) (25, -5.06179771423339840000e+001) (26, -3.60908794403076170000e+000) (0, 2.81586408615112300000e+000) (1, 1.17723140716552730000e+001) (2, 1.79039592742919920000e+001) (3, 8.83039093017578120000e+000) (4, -2.37949810028076170000e+001) (5, -1.26361595153808590000e+002) (6, 1.80557460784912110000e+001) (7, 1.76401786804199220000e+001) (8, -1.51973066329956050000e+001) (9, -3.85376159667968750000e+002) (10, -2.06280193328857420000e+001) (11, -2.93167448043823240000e+000) (12, -1.50268659591674800000e+001) (13, -8.39483261108398440000e+000) (14, 6.47071552276611330000e+000) (15, -7.37209091186523440000e+001) (16, -1.77139083862304690000e+002) (17, -1.30307750701904300000e+001) (18, -3.66046047210693360000e+000) (19, -1.43877914428710940000e+002) (20, -1.15493705749511720000e+002) (21, -4.05586280822753910000e+001) (22, -1.39537687301635740000e+001) (23, -7.78170776367187500000e+002) (24, -1.32178058624267580000e+001) (25, -1.12823059082031250000e+003) (26, -8.59727442264556880000e-001) (0, 1.33759140968322750000e+000) (1, 3.03525657653808590000e+001) (2, -3.76217985153198240000e+000) (3, -1.31233882904052730000e+000) (4, -1.05344295501708980000e+000) (5, -1.58579063415527340000e+000) (6, 2.84186553955078120000e+000) (7, 3.15874557495117190000e+001) (8, 9.30014848709106450000e-001) (9, 1.37574218750000000000e+002) (10, 3.61650482177734370000e+002) (11, -3.85076618194580080000e+000) (12, 6.80723237991333010000e+000) (13, -2.78928947448730470000e+000) (14, 9.70094585418701170000e+000) (15, 4.51795721054077150000e+000) (16, -2.40059661865234370000e+002) (17, -1.35291910171508790000e+000) (18, -1.10074138641357420000e+000) (19, 1.60091489553451540000e-001) (20, -5.90256881713867190000e+000) (21, -4.47415399551391600000e+000) (22, 8.56776962280273440000e+001) (23, -1.30479077148437500000e+003) (24, 1.81051528930664060000e+002) (25, -2.16719398498535160000e+001) (26, -1.41891551017761230000e+000) (0, 3.52304220199584960000e+000) (1, 7.04322624206542970000e+000) (2, 4.03544282913208010000e+000) (3, -1.38623123168945310000e+001) (4, 1.34944701194763180000e+000) (5, -7.63343143463134770000e+000) (6, 1.36771287918090820000e+001) (7, -6.61317672729492190000e+001) (8, 2.93122339248657230000e+000) (9, 7.18495025634765630000e+001) (10, -2.37372932434082030000e+001) (11, 3.56001794338226320000e-001) (12, 1.50917720794677730000e+001) (13, 2.03725671768188480000e+000) (14, 3.86055135726928710000e+000) (15, 5.27912521362304690000e+000) (16, 3.79703521728515630000e+001) (17, 3.37242841720581050000e+000) (18, -2.31936454772949220000e+000) (19, -1.36859350204467770000e+001) (20, 5.35090780258178710000e+000) (21, -2.52188014984130860000e+000) (22, 2.27286624908447270000e+000) (23, 8.65989303588867190000e+000) (24, -1.96010955810546870000e+002) (25, 3.27093566894531250000e+002) (26, 2.92724800109863280000e+000) (0, 1.34934005737304690000e+002) (1, -2.67643642425537110000e+001) (2, -6.64041519165039060000e+001) (3, -8.97108078002929690000e+000) (4, 2.98793125152587890000e+001) (5, 5.28184280395507810000e+001) (6, -1.06142158508300780000e+002) (7, -9.13390274047851560000e+001) (8, 2.54339599609375000000e+001) (9, 4.19309387207031250000e+002) (10, 1.82654983520507810000e+002) (11, 1.01585979461669920000e+001) (12, 5.49329681396484380000e+001) (13, 1.17984619140625000000e+001) (14, -1.89694747924804690000e+001) (15, 5.42284469604492190000e+001) (16, 5.39179077148437500000e+001) (17, 1.14341783523559570000e+001) (18, 1.13148469924926760000e+001) (19, -1.22841291427612300000e+001) (20, 5.35796852111816410000e+001) (21, 7.34285049438476560000e+001) (22, -1.53299423217773440000e+002) (23, 9.19205200195312500000e+002) (24, -2.65754882812500000000e+002) (25, 4.95440406799316410000e+001) (26, 3.36101770401000980000e+000) (0, 4.42035198211669920000e-002) (1, -1.91653137207031250000e+001) (2, -1.44409923553466800000e+001) (3, -8.05739974975585940000e+000) (4, 5.26145792007446290000e+000) (5, -5.49048757553100590000e+000) (6, -3.82123680114746090000e+001) (7, -3.12435684204101560000e+001) (8, 1.82619285583496090000e+000) (9, 3.23185119628906250000e+001) (10, 5.81010484695434570000e+000) (11, 1.16896381378173830000e+001) (12, -9.98876647949218750000e+001) (13, 7.33454036712646480000e+000) (14, -2.96001148223876950000e+000) (15, 4.02034835815429690000e+001) (16, 7.31253051757812500000e+001) (17, -3.16020917892456050000e+000) (18, 1.34082965850830080000e+001) (19, 2.91285371780395510000e+000) (20, -8.42068862915039060000e+000) (21, 9.07634973526000980000e-001) (22, -1.69452774524688720000e+000) (23, 5.37613525390625000000e+001) (24, 2.55862283706665040000e+000) (25, 7.38766479492187500000e+001) (26, 1.00666713714599610000e+000) (0, 3.72238121032714840000e+001) (1, 1.61573743820190430000e+000) (2, 1.30298209190368650000e+000) (3, 1.32547027587890620000e+002) (4, 7.51747083663940430000e+000) (5, 2.35595798492431640000e+000) (6, 8.15070092678070070000e-001) (7, 9.85942649841308590000e+000) (8, 1.05590114593505860000e+001) (9, -1.99255142211914060000e+001) (10, 1.53747854232788090000e+001) (11, 2.68485069274902340000e+001) (12, -4.67337493896484380000e+001) (13, 1.35121164321899410000e+001) (14, 3.58187942504882810000e+001) (15, 9.21960639953613280000e+000) (16, 2.74143753051757810000e+001) (17, 2.50212335586547850000e+000) (18, 1.78224468231201170000e+001) (19, 1.21148300170898440000e+001) (20, -1.15660858154296870000e+000) (21, 7.93208122253417970000e+000) (22, -2.62919282913208010000e+000) (23, 2.49039211273193360000e+001) (24, 5.25871337890625000000e+002) (25, 1.11550865173339840000e+001) (26, 6.98533201217651370000e+000) (0, -2.75631219148635860000e-001) (1, 4.66582565307617190000e+001) (2, 2.09180469512939450000e+001) (3, 1.02991952896118160000e+001) (4, -8.98662281036376950000e+000) (5, -6.31080865859985350000e-001) (6, 9.28366947174072270000e+000) (7, -9.15489101409912110000e+000) (8, 6.02471399307250980000e+000) (9, -3.41445503234863280000e+001) (10, -7.58640975952148440000e+001) (11, 2.12976884841918950000e+000) (12, -9.78026351928710940000e+001) (13, 7.06215858459472660000e-001) (14, 2.10351982116699220000e+001) (15, -5.64194965362548830000e+000) (16, -8.60595016479492190000e+001) (17, -6.43393933773040770000e-001) (18, 3.45097446441650390000e+000) (19, -3.32875633239746090000e+001) (20, -3.65000724792480470000e+001) (21, -1.41869897842407230000e+001) (22, -3.53455162048339840000e+000) (23, 8.65255260467529300000e+000) (24, 2.57712188720703130000e+002) (25, 1.73378570556640620000e+002) (26, 2.40704679489135740000e+000) (0, -1.71983699798583980000e+001) (1, 5.20460653305053710000e+000) (2, -2.47984826564788820000e-001) (3, -2.29689979553222660000e+000) (4, -9.60618376731872560000e-001) (5, 2.15300083160400390000e+001) (6, 6.19724225997924800000e+000) (7, 1.60747509002685550000e+001) (8, 7.40285038948059080000e-001) (9, 6.18738632202148440000e+001) (10, 4.41769599914550780000e+001) (11, -3.29487085342407230000e+000) (12, 1.98538732528686520000e+000) (13, -2.52134323120117190000e+000) (14, -9.49242687225341800000e+000) (15, 1.70633554458618160000e+000) (16, -6.55526504516601560000e+001) (17, 6.71586096286773680000e-002) (18, -5.84052228927612300000e+000) (19, -5.29119157791137700000e+000) (20, -6.66080522537231450000e+000) (21, -1.79505729675292970000e+001) (22, 2.54978466033935550000e+001) (23, -1.20252758789062500000e+003) (24, 6.85415172576904300000e+000) (25, 5.37580108642578130000e+001) (26, 6.78881406784057620000e-001) (0, 3.07682752609252930000e-001) (1, 7.84725046157836910000e+000) (2, 9.33297824859619140000e+000) (3, 2.75233707427978520000e+001) (4, -9.55130100250244140000e+000) (5, 6.90184631347656250000e+001) (6, 5.35715579986572270000e+000) (7, 7.32403659820556640000e+000) (8, 2.11347967386245730000e-001) (9, -1.22477592468261720000e+002) (10, 1.44602899551391600000e+001) (11, -1.09396719932556150000e+000) (12, -5.52629828453063960000e-002) (13, -1.56885886192321780000e+000) (14, 6.78884029388427730000e+000) (15, 1.94408452510833740000e+000) (16, -1.09470153808593750000e+003) (17, -1.17479121685028080000e+000) (18, 8.92544984817504880000e-001) (19, -4.88064918518066410000e+001) (20, -1.32332885742187500000e+002) (21, -1.98196426391601560000e+002) (22, 7.03143920898437500000e+002) (23, -1.41161668300628660000e+000) (24, 4.73150756835937500000e+002) (25, -1.15219001770019530000e+002) (26, 9.93991374969482420000e-001) (27, 3.28363704681396480000e+000) (28, 3.45048606395721440000e-001) (29, 1.90589654445648190000e+000) (30, -1.12797534465789790000e+000) (31, -1.00588166713714600000e+000) (32, 7.08484802246093750000e+002) (33, 1.29050268554687500000e+003) (34, 2.77530622482299800000e+000) (35, -7.77521753311157230000e+000) (36, -1.62009656429290770000e+000) (37, -4.46629047393798830000e+000) (38, 8.69873881340026860000e-001) (39, 9.53889727592468260000e-001) (40, -1.84186191558837890000e+001) (41, 1.58333480358123780000e+000) (42, 6.18856668472290040000e-001) (27, -6.95010900497436520000e+000) (28, -1.05008408427238460000e-001) (29, -6.97877550125122070000e+000) (30, 3.00203084945678710000e+000) (31, -5.39468765258789060000e-001) (32, 1.13889001464843750000e+003) (33, 1.19859826660156250000e+003) (34, 4.40145826339721680000e+000) (35, -2.46292638778686520000e+000) (36, 3.27213478088378910000e+000) (37, 2.22413405776023860000e-001) (38, 2.02722713351249690000e-001) (39, -2.50519800186157230000e+000) (40, 4.66766774654388430000e-001) (41, -1.71163034439086910000e+000) (42, -3.06374192237854000000e-001) (27, 1.34664988517761230000e+000) (28, -8.81202816963195800000e-001) (29, -5.72663784027099610000e-001) (30, -9.52541470527648930000e-001) (31, 7.74623274803161620000e-001) (32, 1.06447045898437500000e+003) (33, 1.12894128417968750000e+003) (34, -2.06204547882080080000e+001) (35, 4.17253875732421870000e+000) (36, 1.23956352472305300000e-002) (37, 6.60823822021484380000e+000) (38, -1.61296820640563960000e+000) (39, -1.23750734329223630000e+001) (40, 2.04772777557373050000e+001) (41, -1.97669351100921630000e+000) (42, 1.81456595659255980000e-001) (27, 6.41482293605804440000e-001) (28, 3.63822507858276370000e+000) (29, -5.28840923309326170000e+000) (30, 8.01328957080841060000e-001) (31, -3.37862396240234380000e+000) (32, 7.04554199218750000000e+002) (33, 1.19451110839843750000e+003) (34, 7.66637742519378660000e-001) (35, 1.59487080574035640000e+000) (36, 1.15675330162048340000e+000) (37, -1.53361778259277340000e+001) (38, -8.19649159908294680000e-001) (39, -1.99584853649139400000e+000) (40, 8.20849800109863280000e+000) (41, 3.31436604261398320000e-001) (42, 4.67193305492401120000e-001) (27, 8.47876012325286870000e-001) (28, -1.15015316009521480000e+000) (29, -4.75165939331054690000e+000) (30, 3.83059382438659670000e-002) (31, -1.23325198888778690000e-001) (32, 1.13603491210937500000e+003) (33, 1.29056958007812500000e+003) (34, -1.02469921112060550000e-001) (35, -2.40809631347656250000e+000) (36, -4.17272090911865230000e+000) (37, 3.65684080123901370000e+000) (38, -2.39870738983154300000e+000) (39, 3.75312423706054690000e+000) (40, 1.01980638504028320000e+001) (41, 9.35042917728424070000e-001) (42, -1.18596100807189940000e+000) (27, -9.02182197570800780000e+000) (28, -1.94048196077346800000e-001) (29, 1.75734114646911620000e+000) (30, 8.46024703979492190000e+000) (31, -3.45692664384841920000e-001) (32, 1.29739819335937500000e+003) (33, 1.40200610351562500000e+003) (34, -9.43944168090820310000e+000) (35, 2.71258449554443360000e+000) (36, 1.14652305841445920000e-001) (37, -4.30531787872314450000e+000) (38, 1.79170072078704830000e-002) (39, 2.64837265014648440000e+000) (40, -3.03624248504638670000e+000) (41, -8.29869806766510010000e-002) (42, -5.48612713813781740000e-001) 
